work.Like -0.23822 -0.657 -0.18234 -0.27082 0.37388 0.29258 0.36056 -0.16137 0.15104 -1.2091 0.55854 -0.47356 -0.97071 0.16369 -0.06569 0.33304 0.12087 -1.0532 0.16485 -0.27826 0.29387 0.59693 -0.034622 0.52167 -0.70408 -0.015132 -0.31391 0.039091 -0.025775 -0.16519 0.38951 -0.081774 0.12421 -0.16597 0.44735 0.44248 -0.48172 -0.11425 0.68915 -0.067273 -0.85993 -0.26644 -0.32784 -0.013557 0.14544 -0.47038 -0.41439 0.74922 0.035828 0.2269 0.27363 0.48537 0.7984 -0.19312 0.64501 -0.91583 -0.082687 -0.63394 0.80661 -0.30163 0.18421 0.38714 -0.035537 -0.18948 0.0011977 0.38154 -0.17869 0.25836 0.20679 -1.0434 -0.54633 -0.19501 -0.58783 0.33157 -0.034046 -0.090579 0.2125 0.31967 0.0022604 0.27983 -0.040671 -0.8736 0.78431 -0.20265 -1.0027 0.35425 0.65195 -0.28921 -0.22806 -0.12091 -0.85888 -0.73207 -0.64079 0.90895 -0.50068 0.64499 0.68866 0.29632 1.275 0.53536 -0.19595 -0.56978 0.73956 0.051011 -0.35788 -0.83275 -0.64854 -0.34051 -0.65766 -0.13801 -0.61539 0.54611 -0.72062 -0.21755 0.19312 0.52933 -0.32705 0.16059 0.024105 0.36047 -0.49021 0.95037 -0.47846 0.090065 0.44523 0.3767 -0.61711 0.15974 0.065017 -0.28779 -1.1618 -0.14217 -0.1396 0.097668 0.050299 0.11814 -0.091723 -0.28737 -0.51187 -0.052649 0.66363 0.24077 -0.78483 0.41359 -0.71502 0.23355 0.17446 -0.27404 0.30108 0.50839 0.11752 0.35794 -0.43559 0.17782 -0.030476 -0.98106 0.31602 -0.66136 -0.18685 0.058196 -0.29575 0.1016 0.42563 1.0113 1.0633 -0.027401 -0.4926 0.47799 -0.11021 -0.79221 0.2635 0.34969 0.22322 0.16711 0.28515 0.15886 -0.22339 0.50669 -0.2829 0.22512 -0.59185 0.36169 -0.036812 0.84032 0.97073 0.40752 1.0417 -0.15376 -0.077373 -0.38674 0.363 0.53934 0.019344 -0.74159 -0.28851 0.56509 0.17537 -0.061812 0.45755 -0.0042312 0.24625 0.19476 -0.10605 -0.56348 -0.38538 0.56633 -0.16132 -0.065379 0.27229 -0.15889 0.22206 0.29453 -0.4771 -0.49885 -0.61796 -0.69638 0.86054 -0.35193 0.783 0.42752 0.32161 -1.3735 0.36511 -0.55 -0.78688 -0.1688 -1.3238 -0.22156 -0.6528 -0.37074 0.061726 -0.91426 -0.21451 0.99855 0.23754 0.27951 0.069495 0.55416 -0.35385 -0.083716 0.13913 0.10337 -0.42127 0.33858 0.15658 0.21388 0.044094 -0.28802 0.61484 0.0048113 -0.38415 0.052055 -0.31961 0.22624 -0.0012203 -1.0456 -0.02688 0.40296 0.76769 -0.0033316 0.077601 -0.089403 -0.96344 0.16016 0.784 0.5682 0.58709 0.15877 -0.10205 0.091097 -0.25454 -0.1915 0.92058 0.53909 -0.38659 1.0326 0.19082 -0.53008 0.085954 -0.47817 -0.64 -1.172 -0.16163 -0.099607 0.55954 -0.0091079 0.23553 0.79102 -0.24471 0.46894 -0.012418 -0.40762 0.16172 0.24587 0.2145 0.28653 -0.83764 0.35327 0.13764 -0.19104
working.So 0.75465 -0.29236 -0.21121 -0.10582 -0.29527 0.43747 0.54216 0.050019 -0.26755 -1.1378 0.84325 -0.18778 0.080695 0.58531 0.69152 -0.26856 0.39041 -1.5674 0.11792 -0.64478 0.99332 0.13984 -0.035935 -0.002737 -0.087684 -0.21617 0.077456 -0.30966 0.046151 -0.24683 0.40395 -0.23959 0.22883 -0.02423 -0.16977 0.30137 -0.11667 -0.32605 0.39827 0.27688 -0.47992 -0.17131 0.24575 -0.089216 0.18219 0.44354 0.48644 -0.40442 -0.29182 -0.353 0.37137 0.37617 -0.26035 0.11204 0.28776 -0.60986 -0.26573 -0.43252 0.050379 0.27174 -0.55623 -0.43279 -0.40006 -0.83657 -0.13132 -0.028751 -0.30004 -0.11976 0.39997 -0.45075 0.14101 0.026888 -0.25014 -0.1954 0.31476 -0.25803 0.31681 0.1111 0.090454 0.40718 0.28824 -0.012144 0.47902 0.56342 -0.13305 0.13439 0.97591 0.20455 0.26409 0.22262 -0.29734 0.12166 -0.20676 0.81857 0.273 0.75485 0.46499 -0.50603 -0.30561 0.33567 0.059508 -0.2086 0.5897 0.031778 -0.23673 -1.1579 -0.6059 0.0060317 -0.16702 0.19335 -0.34189 -0.0056122 0.56241 -0.29305 0.0015023 0.16199 0.11679 -0.12847 -0.19443 -0.10313 -0.60515 -0.16189 0.22301 0.32461 -0.03758 -0.085667 -0.41979 -0.086339 0.38089 0.13338 -0.025432 -0.15438 -0.26799 0.57316 0.40464 -0.37896 0.23165 -0.14796 -0.69594 -0.22111 1.0721 0.4889 -0.20981 -0.24303 0.08764 0.58447 0.16103 0.21005 -0.10607 0.36143 -0.37385 0.055251 -0.35428 -0.22422 0.18093 0.083696 0.58153 -0.51963 0.31838 -0.10266 -0.39915 0.44969 -0.16414 0.43864 0.4871 0.32021 -0.26784 0.046979 0.01485 -0.59582 0.1481 -0.27311 0.55767 -0.0041041 -0.30367 0.30097 -0.62399 -0.22799 -0.8713 0.15241 0.11886 -0.087835 -0.087599 0.35354 0.58741 0.002511 0.43596 -0.39656 -0.076113 0.096082 0.70846 0.17941 -0.073667 -1.1527 0.64769 -0.14693 0.47014 0.37243 0.64551 -0.50565 -0.62267 0.42015 0.12043 0.43612 0.10275 0.014477 -0.042026 -0.15173 0.71898 -0.070249 -0.27856 -0.30365 -0.030913 0.46852 -0.062828 -0.55795 -0.06883 0.17722 0.62608 -0.071558 -0.61672 -0.53966 0.18501 -0.21992 -0.35297 -0.39729 0.01857 -0.27451 0.036136 -0.20531 -0.51511 -0.16891 0.072924 0.16599 0.29282 -0.16785 0.21802 -0.3327 -0.33542 0.70287 0.23236 0.025137 0.13882 -0.12811 -0.33452 -0.3753 -0.128 0.12622 0.5252 0.25865 -0.2329 -0.17798 0.30169 -0.037896 0.12052 -0.93808 -0.13936 0.57784 -0.25637 -0.18554 0.14769 -0.24721 -0.33807 0.10586 -0.037655 1.0668 -0.14087 -0.35483 -0.69052 0.26484 -0.62101 -0.38819 -0.11892 -0.27817 0.1285 0.60731 0.60061 -0.076968 0.25596 -0.59963 0.089559 0.17332 -0.28237 -0.36658 0.013868 0.40528 -0.36481 -0.25091 -0.48212 0.015265 0.22507 -0.73528 0.33818 -0.0265 0.65953 -0.4845 -0.34344 0.93551 -0.099674 -0.66892
wried 0.54698 -0.50515 0.56164 -0.29412 -0.35497 -0.086932 0.53189 0.024722 0.50163 -1.3026 0.58098 0.16734 -0.17351 0.087982 0.52594 -0.087712 -1.046 -1.2622 0.45437 0.43982 -0.28325 0.19497 0.055414 -0.0522 -0.26244 -0.4733 -0.48732 -0.14578 0.12642 0.079529 -0.059997 -0.21641 -0.89274 -1.1314 -0.43692 -0.37595 0.36138 -0.2553 -0.80996 0.47649 -0.43276 -0.16246 -0.061018 0.01738 0.17351 0.41624 0.49835 -0.49524 -0.32924 0.44895 -0.29058 0.16862 -0.54233 0.43066 0.71693 0.4884 -0.27709 0.30064 1.0192 0.99367 -0.44326 -0.30281 0.21601 -0.48688 -0.22566 -0.1042 -0.35523 -0.37186 -0.24542 0.11419 0.86383 0.52712 0.69623 -0.14891 -0.689 0.0033725 -0.42253 0.12883 -0.058124 0.28278 0.33346 -0.23911 -0.27291 0.40481 0.32815 -0.24976 0.91483 0.65292 -0.44 -0.84596 -0.22039 -0.095133 0.62915 -0.0064897 -0.18669 0.73761 -0.43675 -0.81335 0.73863 0.0019477 -0.58171 -0.19578 0.56637 -0.20175 0.011801 -1.0766 -0.23294 -0.11293 -0.17055 0.04277 -0.92338 -0.075628 -0.39946 -0.071232 -0.13106 0.032942 0.16721 -0.052729 0.76643 -0.48946 -0.037414 -0.29097 0.0095891 0.40808 -0.36708 0.34313 -0.62007 0.65708 0.31305 0.066496 -0.45171 -0.001894 0.94646 0.96177 0.068624 -0.029163 -0.25681 -0.16906 -0.23038 0.62359 0.97783 0.12255 -0.7611 -0.19994 0.1239 -0.028487 0.11776 0.05527 0.1483 0.17072 -0.72302 -0.73815 0.17012 -0.37084 -0.1977 -0.042085 0.33889 -1.0105 0.050286 -0.27457 0.48117 -0.59158 0.13545 1.052 0.0025161 -0.15217 0.34454 0.14694 -1.2057 -0.024874 0.045853 0.06049 0.10668 -0.053936 0.51449 0.18676 0.15631 -0.0090728 -0.53481 -0.56706 -0.1172 -0.28136 0.26303 0.60234 0.55178 0.96464 0.53983 -0.31895 0.028337 0.024535 0.92718 0.27371 0.36763 -0.053033 -1.0019 -0.024517 0.57822 -0.49576 0.82215 -0.19097 0.42474 0.49199 0.18354 -0.0045389 -0.29392 0.29186 -0.65445 0.28715 -0.093877 0.015162 0.10571 0.42253 0.18456 -0.52703 -0.09919 -0.20331 -0.47172 -0.12844 1.1128 -0.41169 0.30901 0.30826 0.20118 0.0063502 -0.83488 -0.44354 -0.22858 -0.21513 -0.32394 -0.54853 -0.021072 -0.065582 0.042364 -0.33969 0.056152 -0.61096 -0.34145 0.65422 0.26794 0.3414 -0.24155 0.17736 0.40744 -0.08413 0.58051 -1.0073 -0.35615 0.43528 0.98767 0.020507 0.20197 -0.10658 -0.22859 1.2361 -0.22769 -0.87285 0.77045 0.21842 -0.33663 0.062235 -0.3137 -0.51691 -0.29141 -1.0041 0.52741 0.27425 -0.55809 -0.24041 -0.41905 0.059512 -0.018453 0.031077 -0.17246 -0.36702 -0.87263 0.46884 -0.63404 0.27416 -0.12808 -0.44967 -0.19807 0.24713 -0.50211 -0.5892 0.62586 -0.1631 0.029226 0.93296 -0.55116 -0.43369 0.011116 0.34422 -0.52358 -0.64036 0.85229 -0.21834 0.44104 0.84572 -0.78417 0.20055
wwent 0.92179 -0.34432 -0.50888 -0.00038625 -0.15145 -0.085631 0.38393 0.074674 0.056987 -1.3233 0.21794 0.13328 0.41757 0.22701 0.21667 -0.30092 0.33823 -1.646 0.066667 -0.28152 0.46895 0.47813 0.38727 0.11613 -0.21627 0.039664 0.0053114 0.054168 -0.034324 -0.43017 -0.25306 0.11364 0.6472 0.18177 -0.43198 -0.50851 0.28256 -0.4121 -0.12915 0.18364 -0.20254 -0.12365 -0.19017 -0.60301 0.30749 0.12014 0.28681 -0.48683 -0.30581 0.52411 -0.32644 -0.12537 0.065301 0.041242 -0.1087 0.047271 0.36568 -0.26228 0.12398 0.098688 -0.31574 0.61451 -0.07568 -0.80243 -0.52907 -0.28244 0.41213 0.30318 -0.035165 -0.46118 0.17367 0.13195 -0.23368 -0.24577 0.15799 -0.56571 -0.1687 0.39946 -0.61916 0.51067 0.34102 0.19513 -0.25803 -0.15677 0.078184 0.043399 0.8011 -0.29361 -0.59954 0.67771 -0.093493 0.016712 0.063267 -0.12711 0.07761 0.84982 0.19773 -0.29623 -0.10186 0.059032 -0.060083 -0.28992 0.1806 -0.24431 -0.45236 -0.99231 0.021503 -0.62385 -0.30766 -0.084384 -0.36097 -0.015729 0.14104 -0.16003 0.27823 0.27548 0.37786 -0.17519 -0.17131 -0.5926 -0.18969 0.35425 -0.10057 0.76215 0.23647 0.060377 -0.78982 0.17589 -0.075555 0.17901 0.04011 0.066191 -0.42696 0.4658 0.35335 -0.17144 0.18272 -0.23381 -0.56127 0.56196 0.87243 -0.56305 0.1868 -0.26648 0.29297 -0.18337 -0.16217 -0.14617 0.070188 -0.077609 0.012003 -0.42204 0.0026052 -0.74232 0.52885 -0.13429 -0.0048766 -0.080545 0.29542 0.050354 -0.16181 -0.13233 -0.40417 0.45936 -0.036917 0.34376 -0.29678 0.43662 -0.45274 -0.34238 -0.53037 0.17725 0.31068 0.17747 -0.025761 -0.61236 -0.2655 0.30776 -1.0477 -0.80933 0.15509 -0.24333 -0.42128 0.05554 0.66522 -0.14966 0.53859 -0.39088 0.012402 -0.020629 0.29576 -0.014522 0.33908 -0.33877 -0.0169 0.27815 0.6658 0.12937 0.25567 -0.65839 -0.1934 0.14642 0.079469 0.2217 -0.20299 0.1434 0.28182 0.18236 0.44772 0.33724 0.14445 0.020295 0.025882 -0.10788 -0.40179 -0.7456 0.12889 -0.5754 0.83282 0.15491 -0.0128 -0.41764 0.065694 -0.47495 -0.21686 -0.31912 -0.37635 -0.79565 0.19045 -0.42173 -0.069458 -0.049041 0.083205 -0.17895 -0.10892 0.09194 0.17867 0.20485 -0.2446 -0.15072 -0.28455 0.35665 -0.24641 0.57932 -0.06134 -0.20303 -0.033066 -0.017911 0.44606 0.19739 -0.075499 -0.18272 0.35778 0.70384 0.53335 -1.2922 -0.025719 0.17757 -0.49134 -0.23289 -0.22255 -0.16993 -0.16771 -0.84641 0.64609 0.13682 -0.12311 -0.31054 -0.76337 0.78616 -0.15579 0.17882 0.39215 0.57589 0.10896 -0.22209 0.14228 0.37911 -0.023613 -0.13896 -0.27407 -0.66255 -0.7612 0.4709 -0.26946 0.31876 -0.039923 0.47163 -0.87986 0.1185 0.18967 -0.41525 -0.24423 0.2065 0.067737 -0.40644 0.1199 0.38018 0.3458 0.060713
xalisae 0.33754 -0.13111 0.15595 -1.1244 0.10046 0.37688 0.56337 0.3429 -0.075865 -1.4379 0.62241 -0.48342 -0.6951 0.7095 0.54806 -1.2619 0.2731 -1.8246 0.043619 -0.53782 0.12971 -0.049896 -0.061837 -0.78441 -0.27688 0.33032 -0.74559 -0.16916 -0.34082 0.014665 -0.26509 -0.56115 -0.016028 0.33881 -1.2523 0.53878 0.039716 -0.24504 0.11222 0.342 0.0828 -0.2186 -0.38019 -0.39754 0.24967 0.41512 -0.23273 -0.76232 0.025859 0.26988 0.017018 1.0793 0.25082 0.53768 -0.16775 -0.2189 0.50626 0.52416 -0.0041065 0.30887 0.44751 -0.3357 0.67409 -0.37186 -0.34061 0.56984 -0.4805 -0.81417 -0.74614 -0.80391 0.25475 -0.1766 0.095041 0.25801 -0.13097 -0.5534 0.3741 -0.35068 -0.46132 -0.070214 0.1693 -0.16614 0.67501 0.49827 -0.21309 0.094205 0.66749 -0.45886 0.065377 0.25699 0.1383 0.43353 0.88576 0.41934 0.12781 0.23227 0.071822 0.66906 0.1421 0.13026 -0.27357 -0.532 0.91435 -0.55102 -0.29034 -0.72206 -0.4193 -0.51726 -0.40168 0.42596 0.44179 0.62323 -0.74717 0.33361 0.084164 -0.98317 0.19751 -1.0869 0.26162 -0.3684 0.29453 0.6362 -0.25872 0.27801 0.39122 -0.14441 0.33565 -0.27445 -0.10937 0.37672 0.025824 0.16426 0.61477 0.88781 -0.62341 0.34063 0.66242 -0.29786 -0.1149 0.23558 0.81436 0.57249 -0.4494 0.09366 -0.1927 0.44383 -0.024514 0.51042 -0.11445 0.23795 -0.29783 -0.3828 0.028107 -0.84 0.47984 -0.60224 0.50128 0.050331 0.019947 -0.0087639 0.33701 0.33588 0.0070844 1.4363 0.35885 0.74741 -0.21297 0.35984 -0.68329 -0.13112 -0.63719 -0.25587 1.4484 -0.12425 0.099303 0.4833 -0.32023 -0.22372 -0.75751 -0.043392 -0.34362 0.25832 -0.42871 0.44159 0.46075 -0.21255 1.215 0.67057 -0.10448 -0.4896 0.72304 -0.13687 -0.14342 -0.73189 -0.12081 -0.61678 0.27051 0.39166 0.83582 0.18226 -0.040608 0.88495 0.42373 0.14559 -1.1575 0.6503 -0.29202 0.31507 0.16969 -0.28908 0.4154 -0.63788 0.66218 1.0656 -0.60237 -0.12617 -0.20588 0.74307 0.97861 -0.44738 0.72506 -0.58722 -0.37272 0.022439 0.59424 -0.61126 0.51495 -0.25328 -0.069322 0.23653 0.31167 0.35545 -0.22214 0.27256 -0.43373 -0.39063 -0.25156 -0.09645 0.83572 0.4252 0.091244 0.065925 0.47798 -0.28403 0.40811 -0.14314 -0.36346 0.76143 0.26998 -0.30496 0.18303 -0.30766 -0.19923 -0.20254 -0.61196 -0.073304 -0.92037 -0.33138 -0.26748 0.72798 0.2496 0.13513 0.25591 -0.60851 -0.32524 0.53027 1.0813 -0.32096 -0.10141 -0.37459 -0.78764 -1.1216 0.53347 0.11887 -0.19507 0.30743 0.40981 -0.31361 0.55246 -0.98002 -0.73186 -0.79694 0.14207 -0.39258 0.016699 0.78303 0.18779 0.3555 -0.84874 0.82071 0.90536 -0.033077 0.26959 -0.6799 0.057595 -0.09408 -0.36196 0.64591 -0.080984 0.073495
xtremecaffeine 0.073032 -1.0294 -0.015436 0.72615 -0.99246 0.29766 0.31656 0.20248 0.35499 -1.5233 0.73436 -0.49081 -0.41827 0.29183 0.074353 0.12443 -0.38916 -1.9075 0.66236 -0.13018 0.23224 -0.42361 0.50729 0.11674 -0.36406 0.3096 -0.25271 -0.44974 -0.43643 -0.07871 0.61046 0.45428 -0.39404 -0.44815 -0.82123 0.18023 -0.50046 -0.61356 0.12602 0.71565 -0.12174 -0.32971 -0.55773 0.45446 -0.64425 -0.025076 0.53956 0.33994 -2.2428 0.16162 -0.10579 -0.19028 0.5311 -1.1584 -0.012105 1.2259 -0.33012 -0.22736 0.24264 -0.27919 -0.22607 0.12892 0.39253 -0.5448 -0.067732 0.47623 0.70757 -0.55753 0.32252 -0.2502 0.69968 0.98067 0.093256 0.26774 -0.074344 -0.49976 -0.19879 1.0347 -0.76909 0.12836 -0.20355 0.22297 0.16983 0.57232 -0.24111 0.21386 0.59493 0.051681 -0.41572 -0.36738 0.68161 -0.48067 -0.0079003 -0.20739 -0.22385 0.754 -0.41943 -0.91269 0.17427 -0.052849 0.21035 0.11842 -0.20285 1.1338 -0.64466 -1.2512 0.31177 -0.9195 -0.77335 -0.64953 -0.20931 0.67904 0.49494 1.0948 -1.0757 0.28089 -0.76899 0.82941 0.25335 -0.046959 -0.63123 0.50789 0.2261 -0.97648 0.078639 0.62496 -0.64848 0.36534 0.10042 -0.48429 0.29238 0.17711 -0.50214 0.39683 1.1637 0.29294 -0.10926 0.12829 0.6088 0.51819 1.2203 0.051693 -0.3424 0.55958 -0.98104 -0.51847 0.26339 0.35746 -0.013495 -0.2495 -0.81288 -0.43173 0.43244 -0.26542 0.81669 -0.17074 0.22624 0.081887 0.92111 0.34182 -0.23957 -0.1024 -0.012148 1.308 0.076847 0.77916 -0.55306 -0.45346 0.0021213 1.0498 -0.16979 0.70723 0.13593 -0.023529 -0.56801 -0.83647 -0.14268 0.048798 -0.20502 -0.26707 -1.1929 0.11131 0.045283 0.45909 1.2132 -0.13596 -0.045226 -0.73938 -0.27297 -0.21587 -0.064827 -0.39962 0.43873 -0.0012714 0.93459 -0.80445 0.52767 0.46531 0.39748 0.59007 0.1925 -0.5118 -0.35191 0.52991 0.0052527 1.2854 0.50986 0.36867 0.93971 -0.61659 0.39132 0.47936 0.51495 -0.30648 0.0091341 -0.74814 0.49482 0.95473 0.82883 0.081142 0.043882 -0.21672 0.14401 -0.27533 0.52745 -0.66206 0.11526 -0.27189 -0.85003 0.78584 0.26498 -0.70717 -0.50217 0.6409 0.69902 1.1022 0.093713 -0.047112 0.88417 0.89696 0.37053 -0.40384 -0.028568 -0.14347 0.23946 0.3079 -0.073106 0.36985 0.6636 0.37188 -0.11814 -0.37056 -0.075624 -0.073177 0.48141 -0.91334 0.59065 0.73421 -0.46232 0.25409 -0.83671 -1.24 0.39381 -0.39229 -0.44548 0.16892 -0.53633 0.96774 -1.3686 -0.28898 -0.78479 -0.079473 0.31813 0.48429 0.20991 -0.017414 0.72448 0.87461 -0.054579 -0.26315 -0.8482 -0.99104 -0.16603 -0.94447 0.77785 -0.44576 0.074195 0.24057 -0.30151 0.071404 0.14481 -0.47524 -0.013947 0.56107 0.47501 0.12738 0.12957 0.42264 -0.11333 0.16125
yildirim 0.22276 -0.29639 0.69412 0.19362 -0.31276 0.24824 0.43449 -1.5894 0.24365 -1.6554 0.37138 -0.34177 -0.42324 0.2833 0.45368 0.64844 0.073105 -1.3473 -0.39131 0.56487 -0.21773 -0.26032 0.24193 -0.035271 -0.37167 -0.059449 -0.76298 0.32822 -0.32133 -0.23439 0.28629 -0.67024 -0.6017 0.14588 -0.52858 0.61175 -0.53065 -0.1358 -0.21498 -0.15972 0.024464 -0.30308 -0.29818 0.2348 -0.85159 0.51329 0.463 -0.044856 -0.41695 0.22953 -0.12089 0.22269 -0.068682 -0.48203 -0.10871 0.30127 -0.18686 -0.64541 0.070422 0.7633 0.52838 0.30013 0.22594 -0.51693 -0.023434 0.22099 -0.32905 -0.1576 0.30472 -0.43841 0.036695 0.33363 -0.66407 0.041934 0.24867 -0.38333 -0.13678 0.37699 -0.5051 -0.42256 0.36807 0.11626 0.66048 0.7616 0.38866 0.56369 0.46492 -0.33636 -0.76598 -0.52222 -0.35123 -0.88414 0.54367 0.54805 -0.60415 0.83981 -0.039558 -0.40059 -0.25844 0.23521 0.36113 0.30396 -0.41176 0.3496 -0.3363 -0.60806 0.33075 0.067939 -0.82982 0.37694 -0.26154 0.024935 -0.28699 0.020989 -0.71155 0.42383 -0.0068308 0.060237 0.59921 -0.056353 -0.48829 0.28616 0.67385 0.4803 0.57657 0.43678 -0.9912 0.062654 0.23979 0.16602 0.093869 -0.10704 0.82471 0.40182 0.16412 -0.78591 -0.52244 0.03522 -0.56215 -0.21334 0.82636 0.63411 -0.37487 -0.58577 -0.25671 0.16047 0.29326 0.14457 0.20168 -0.28878 0.4782 -0.29281 0.050844 -0.75459 0.57195 -0.37675 -0.39162 -0.56356 0.13164 0.029819 -0.19134 0.15707 -0.37404 0.65621 0.82125 0.73788 -0.20419 -0.33533 -0.065064 -0.23913 -0.17303 0.096912 -0.12052 0.15325 -0.40676 -0.044888 0.028421 0.0084076 -0.44146 0.088919 -0.26685 -0.48658 0.094496 0.58034 0.29243 -0.56366 -0.092232 -0.25219 -0.10982 -0.53943 0.34708 0.61392 -0.15548 -0.36504 -0.17269 0.072914 0.72723 0.55422 0.071196 -0.019275 -0.0056144 -0.11574 0.11434 -0.18628 -0.15775 0.29066 0.49089 0.66121 -0.31306 -0.14219 0.11366 0.88913 -0.41504 -0.21091 -0.71943 -0.18855 0.12126 0.25616 0.97412 -0.074482 0.47675 0.33729 0.52216 -0.0050541 0.51238 0.011016 -0.096827 0.25382 -0.40337 -0.046494 0.18778 -0.44478 -0.81268 -0.57175 -0.30711 0.26275 0.12859 -0.031166 0.36616 -0.71253 0.45637 1.0097 -0.21348 -0.27757 -0.011512 0.86432 0.017007 0.14656 -0.23248 0.61823 0.12468 0.85046 0.87129 0.16226 -0.14501 -0.45738 -0.065221 0.062444 0.22003 -0.12357 -0.19996 -0.07996 0.003595 -0.34135 -0.53587 0.88166 0.10204 0.71313 -0.69475 0.44479 0.090681 0.88973 1.1634 -0.21506 -0.37903 -0.02496 0.4877 -0.050222 -0.34716 -0.79745 -0.674 -1.2899 -0.22232 -0.2545 -0.27912 -0.009893 0.029685 0.43254 -0.37097 0.29525 1.1083 -0.0094326 -0.18536 0.25817 0.86129 -0.41398 0.24018 0.093864 -0.16545 -0.34593
z/28 0.7344 -0.33641 0.26918 0.41843 -0.189 0.2802 0.23875 -0.12879 -0.15797 -1.2841 0.33532 -0.31047 0.72732 0.31546 0.71186 0.19048 -0.042019 -0.074581 0.45085 0.44498 -0.1904 -0.3766 0.49905 -0.028839 -0.20881 0.01066 0.25383 -0.0041936 -0.38734 0.32464 0.55693 -0.83097 -0.03571 0.24106 -0.6569 0.57372 -0.56636 -0.34669 0.23249 0.001781 0.19858 -0.074999 0.046491 -0.32702 -0.22864 0.2175 0.89353 -0.35827 -0.41881 -0.6151 -0.049783 -0.68134 -0.11981 -0.40551 0.96578 0.26983 -0.31023 -0.65689 0.065648 0.026246 -0.69145 -0.21135 0.31764 -1.0328 -0.64371 0.2877 -0.089071 -0.54376 -0.14109 -0.17937 0.35235 -0.55115 -0.55691 0.21101 -0.21912 -0.51552 -0.24145 0.2055 -0.37466 -0.25949 -0.84854 -0.060169 0.45496 -0.086216 -0.012816 0.69526 1.2326 -0.30129 -0.60421 -0.27917 -0.031972 -1.0298 0.13614 0.51755 -0.40155 0.91298 0.08289 0.74463 0.87894 0.35653 -0.33584 0.89456 -0.19836 -0.20825 -1.1171 -0.74503 -0.10777 -0.45809 -0.13718 -0.22515 -0.3577 0.15066 -0.59936 -0.56913 0.52891 -0.049442 -0.61265 -0.14471 -0.066943 -0.57421 0.11011 -0.58192 -0.20271 -0.19866 -0.16494 1.6559 -0.50636 0.30445 0.46664 -0.31633 -0.52518 -0.23178 -0.01507 0.16218 1.0241 -0.42143 0.86248 -0.42621 -0.43544 0.31946 0.8 0.0011398 0.22613 0.1298 -0.14934 0.27283 -0.46231 0.17721 -0.24175 0.39047 -0.070666 -0.46399 0.13836 -0.055565 -0.39398 0.8866 -0.066249 0.36939 -0.81058 0.11005 0.37153 -0.0012728 0.48998 0.43038 1.0236 -0.50739 -0.86532 0.33877 0.17491 0.6188 0.3559 -0.2359 0.28746 0.83032 0.43051 -0.23532 -0.10999 -0.17347 -0.75788 -0.18558 0.38949 0.25863 -0.20428 -0.35266 0.40225 0.11295 0.18793 -0.72468 0.46471 0.43722 0.88695 -0.34572 0.084704 0.31336 0.073734 0.35295 0.62881 0.15037 0.68064 -0.90605 -0.2311 0.30949 -0.082686 -0.1367 -0.34168 -0.90241 0.23875 0.051067 0.15459 0.63191 -0.30838 1.1037 0.42234 0.53536 -1.4199 0.30107 0.29035 -0.7074 0.088202 -0.54826 -0.13028 -0.055707 0.23455 -0.44881 -0.14154 0.30395 0.72527 -0.070906 0.14271 -0.5688 -0.36508 0.40361 -0.68058 0.37268 0.067953 0.10169 -0.37861 0.4273 -0.0017937 0.84402 -0.68756 -0.9725 -1.0093 -0.12518 0.075584 0.32589 1.1193 0.15558 0.10085 0.86297 0.22554 -0.1101 0.14519 0.62782 0.1702 -0.31207 -0.4023 -0.19637 0.24217 -0.24255 -0.71338 -0.81587 0.6187 -0.23057 -0.1051 0.21465 0.086559 -0.89232 -0.64525 0.81889 0.41085 -0.73252 0.44039 0.031819 -0.53991 -0.32551 -0.36456 -0.27203 -0.06308 -0.47751 -0.35176 0.06613 0.56049 -0.46305 -0.26471 0.48699 0.53275 0.67011 -0.82331 0.41982 -0.31101 -0.98955 0.27627 0.25265 0.47931 -0.48432 -1.0055 0.63718 -0.13914 -0.16472
zipout 0.21215 -0.99456 1.1782 2.0721 -0.44271 0.5873 0.26128 -0.42554 0.03091 -1.6743 0.53955 -0.81537 -0.1099 0.50041 0.03098 -0.16896 -0.19224 -1.0841 1.291 -0.2898 -0.25154 0.86923 1.2335 0.9504 0.17627 0.22764 0.33543 0.085356 1.1421 0.14388 -0.29102 0.16234 -0.33895 1.113 -0.19183 0.85632 0.56638 0.30565 0.19748 0.66775 -0.63244 0.35169 -0.28341 0.21512 -0.48553 -0.12408 1.5803 -0.84168 -0.56978 0.69527 0.26566 -0.18519 0.59217 -0.20673 -1.0369 0.071479 -0.33256 0.25181 -1.3539 -0.71076 -1.3063 0.6475 0.9508 -0.74712 -0.92648 0.61159 -0.68407 1.1197 1.1742 -0.036734 -0.96662 1.0845 -0.6141 0.74818 -0.20208 -0.43434 0.34964 -0.53998 -0.072417 0.2306 -0.3164 -0.73702 1.08 -0.36639 -0.69429 -0.85476 1.1998 -0.031501 0.27917 0.28004 0.30161 -0.98566 0.17055 0.87937 0.76619 0.46496 0.083777 1.0262 -0.38867 -0.85266 0.32941 -0.36289 0.30474 0.26712 0.42711 -0.60938 0.36383 -0.35418 0.88186 -0.035809 -1.4192 -0.4663 -0.35662 0.46073 -0.62261 0.93451 -0.029568 0.20841 0.18113 -0.32559 0.29561 -0.93823 -0.61544 0.83786 -0.91944 0.039248 -0.98212 -0.20819 1.1864 -0.61742 -1.1421 0.78486 -1.49 0.79808 0.77744 0.076389 -0.62127 -1.3072 -0.079872 -0.20389 0.7245 -0.83652 -0.6545 0.6849 -1.3621 0.071648 -0.73938 0.54412 -0.1177 0.56045 -1.1811 0.1938 -0.38527 0.41352 -0.31909 1.5024 -0.94093 -0.40172 0.13958 -0.21895 0.34863 0.78526 -0.5182 0.27495 0.95988 0.5422 0.97096 -0.05574 0.49499 -0.37921 0.89037 1.3777 -0.42273 -0.47393 -1.1386 0.21378 0.56963 1.4187 0.8816 0.088721 0.60179 -1.736 -0.76143 0.40075 0.68049 0.048651 -1.0229 -0.1645 0.45284 0.20376 1.1333 0.36993 0.45225 0.5183 0.19774 -1.2338 1.1549 0.26615 0.040022 -0.51211 -0.1325 0.23491 0.68863 -0.0055736 -0.34504 1.4031 0.5032 0.064927 -0.77013 -0.41247 1.2083 1.3403 -0.024578 0.68259 0.07104 -0.044296 0.43338 0.1788 0.9109 0.35871 -0.87992 0.40251 -0.84098 0.41928 -0.23723 -0.18218 -1.2751 -0.76101 0.3458 0.3399 1.0175 -0.21618 0.178 -0.24376 1.1987 -0.14186 0.32555 0.65616 -0.74503 -0.66969 -0.30805 0.44383 -1.1829 -0.58785 -1.0336 0.098398 -0.64174 0.193 1.4043 -0.2063 0.81534 -1.6247 -0.053104 1.5215 -1.5313 -0.54488 0.27059 0.22896 -1.0029 0.27774 0.76948 0.50176 -0.043451 -0.5376 0.012047 0.96989 -0.10107 0.59987 -1.1205 -0.70016 -0.27168 0.33058 0.26264 -0.21011 1.0393 0.11873 -0.13742 -0.83093 -0.25345 0.12958 -1.615 -0.036754 0.65228 0.33335 0.3641 0.093597 -0.30239 1.2116 -0.19963 0.90834 -0.19946 -0.19848 1.0915 -0.35107 -1.0472 -0.41382 -0.21139 0.93427 -0.93286 -0.51479
zulchzulu -0.07969 -0.22905 0.80366 -0.78865 -0.40567 -0.15716 -0.42302 0.64081 -0.13215 -1.4109 0.73118 -0.37391 -0.36422 0.024199 -0.24359 1.014 0.00065176 -0.89537 0.8054 -0.073101 0.20257 0.59553 -0.0034971 -0.28126 0.58631 -0.17115 0.12428 0.53392 0.48289 0.36989 -0.091151 -0.23874 0.38864 -0.16403 -0.85745 0.19 0.4145 0.35958 -0.018726 0.55213 -0.0091331 -0.48204 -0.64685 0.61736 -0.27128 0.13459 0.94729 -0.42939 -0.32462 -0.088466 0.37337 0.29062 -0.0074411 0.1984 -0.42686 -0.071294 -0.043443 -0.0033026 -0.10519 0.20885 -0.30217 0.27366 -0.35602 -0.89143 0.28561 -0.11656 0.2246 -0.021561 -0.016219 -0.96267 0.85239 -1.2714 -0.8429 0.25947 0.10074 -0.1253 0.016124 0.12488 0.16413 -0.46028 0.32825 -0.51367 -0.16456 0.5641 0.092562 1.1196 0.15936 0.66175 -1.0068 -0.086162 0.17847 -0.46644 0.12672 0.31786 -0.25533 0.73502 -0.010719 0.0054341 -0.013019 0.60229 0.061846 0.061026 0.75747 0.6877 0.026887 -0.36918 -0.17628 -0.77614 -0.69935 0.53906 0.097763 -0.23648 -0.23217 -0.35618 0.049942 -0.048307 -0.71276 -0.80498 -0.00497 -0.14976 0.51274 -0.30659 0.12332 0.46295 0.51516 -1.1373 -0.57126 0.5135 0.29104 -0.86347 0.44613 -0.81658 -0.29672 -0.71397 -0.33071 -0.12573 -0.16253 0.31273 -0.59367 -0.03315 1.2405 0.26456 0.10989 -0.33882 0.26638 0.049057 -0.36959 -0.40592 -0.22758 0.6045 -0.37629 0.24219 0.27733 -0.63102 0.26867 0.077098 0.41419 -0.12265 -0.10442 0.6554 -0.28348 0.01612 -0.11086 0.38989 0.98121 1.3837 -0.48673 0.19253 -0.83225 -0.61103 -0.13101 0.010166 0.21825 0.80634 0.48111 -0.31594 0.10402 -0.60965 -0.42259 -0.26895 -0.43522 0.62865 0.091043 -0.059981 0.28502 -0.31621 0.036937 0.13772 -0.30015 0.37415 0.33253 -0.14745 0.1421 -0.41723 -0.088119 -0.52391 0.019749 1.0092 0.6747 -0.70984 -0.44131 0.019539 -0.1318 -0.11064 -0.57117 0.14544 -0.54714 -0.24794 0.64769 0.083943 0.67539 0.63883 0.00097277 0.70608 -0.19377 -0.59744 0.4864 -0.056739 0.26321 0.06788 -0.12797 0.072588 -0.20607 0.28131 0.80015 -0.46605 0.19531 -0.36227 -0.20949 -0.11307 0.4254 0.10286 -0.28195 -0.1157 0.47033 0.31709 0.33137 -0.14531 -0.10918 -0.23374 -0.19897 0.12693 -0.03747 -0.45309 -0.34972 -0.3382 0.70407 -0.1055 0.78543 0.034963 -0.68759 0.74536 0.025425 -0.20919 -0.0022691 -0.90022 -0.71534 0.6525 -0.10571 -0.49702 -0.38476 -0.39235 0.1116 -0.20217 -0.43163 0.42698 0.20545 0.4036 -0.86946 0.57366 -0.13683 0.65796 0.61283 0.27316 -0.73551 -0.70123 -0.39056 -0.43813 -0.32104 -0.61864 -0.74312 -0.49329 -0.70878 -0.35697 0.79095 0.62299 -0.36023 0.66178 -0.54589 0.10604 0.64657 -0.41591 0.1424 -0.051749 0.38925 -0.20522 0.26878 -0.083561 0.48532 -0.7313
